Promoter,mat2vec_dim_1,mat2vec_dim_2,mat2vec_dim_3,mat2vec_dim_4,mat2vec_dim_5,mat2vec_dim_6,mat2vec_dim_7,mat2vec_dim_8,mat2vec_dim_9,mat2vec_dim_10,mat2vec_dim_11,mat2vec_dim_12,mat2vec_dim_13,mat2vec_dim_14,mat2vec_dim_15,mat2vec_dim_16,mat2vec_dim_17,mat2vec_dim_18,mat2vec_dim_19,mat2vec_dim_20,mat2vec_dim_21,mat2vec_dim_22,mat2vec_dim_23,mat2vec_dim_24,mat2vec_dim_25,mat2vec_dim_26,mat2vec_dim_27,mat2vec_dim_28,mat2vec_dim_29,mat2vec_dim_30,mat2vec_dim_31,mat2vec_dim_32,mat2vec_dim_33,mat2vec_dim_34,mat2vec_dim_35,mat2vec_dim_36,mat2vec_dim_37,mat2vec_dim_38,mat2vec_dim_39,mat2vec_dim_40,mat2vec_dim_41,mat2vec_dim_42,mat2vec_dim_43,mat2vec_dim_44,mat2vec_dim_45,mat2vec_dim_46,mat2vec_dim_47,mat2vec_dim_48,mat2vec_dim_49,mat2vec_dim_50,mat2vec_dim_51,mat2vec_dim_52,mat2vec_dim_53,mat2vec_dim_54,mat2vec_dim_55,mat2vec_dim_56,mat2vec_dim_57,mat2vec_dim_58,mat2vec_dim_59,mat2vec_dim_60,mat2vec_dim_61,mat2vec_dim_62,mat2vec_dim_63,mat2vec_dim_64,mat2vec_dim_65,mat2vec_dim_66,mat2vec_dim_67,mat2vec_dim_68,mat2vec_dim_69,mat2vec_dim_70,mat2vec_dim_71,mat2vec_dim_72,mat2vec_dim_73,mat2vec_dim_74,mat2vec_dim_75,mat2vec_dim_76,mat2vec_dim_77,mat2vec_dim_78,mat2vec_dim_79,mat2vec_dim_80,mat2vec_dim_81,mat2vec_dim_82,mat2vec_dim_83,mat2vec_dim_84,mat2vec_dim_85,mat2vec_dim_86,mat2vec_dim_87,mat2vec_dim_88,mat2vec_dim_89,mat2vec_dim_90,mat2vec_dim_91,mat2vec_dim_92,mat2vec_dim_93,mat2vec_dim_94,mat2vec_dim_95,mat2vec_dim_96,mat2vec_dim_97,mat2vec_dim_98,mat2vec_dim_99,mat2vec_dim_100,mat2vec_dim_101,mat2vec_dim_102,mat2vec_dim_103,mat2vec_dim_104,mat2vec_dim_105,mat2vec_dim_106,mat2vec_dim_107,mat2vec_dim_108,mat2vec_dim_109,mat2vec_dim_110,mat2vec_dim_111,mat2vec_dim_112,mat2vec_dim_113,mat2vec_dim_114,mat2vec_dim_115,mat2vec_dim_116,mat2vec_dim_117,mat2vec_dim_118,mat2vec_dim_119,mat2vec_dim_120,mat2vec_dim_121,mat2vec_dim_122,mat2vec_dim_123,mat2vec_dim_124,mat2vec_dim_125,mat2vec_dim_126,mat2vec_dim_127,mat2vec_dim_128,mat2vec_dim_129,mat2vec_dim_130,mat2vec_dim_131,mat2vec_dim_132,mat2vec_dim_133,mat2vec_dim_134,mat2vec_dim_135,mat2vec_dim_136,mat2vec_dim_137,mat2vec_dim_138,mat2vec_dim_139,mat2vec_dim_140,mat2vec_dim_141,mat2vec_dim_142,mat2vec_dim_143,mat2vec_dim_144,mat2vec_dim_145,mat2vec_dim_146,mat2vec_dim_147,mat2vec_dim_148,mat2vec_dim_149,mat2vec_dim_150,mat2vec_dim_151,mat2vec_dim_152,mat2vec_dim_153,mat2vec_dim_154,mat2vec_dim_155,mat2vec_dim_156,mat2vec_dim_157,mat2vec_dim_158,mat2vec_dim_159,mat2vec_dim_160,mat2vec_dim_161,mat2vec_dim_162,mat2vec_dim_163,mat2vec_dim_164,mat2vec_dim_165,mat2vec_dim_166,mat2vec_dim_167,mat2vec_dim_168,mat2vec_dim_169,mat2vec_dim_170,mat2vec_dim_171,mat2vec_dim_172,mat2vec_dim_173,mat2vec_dim_174,mat2vec_dim_175,mat2vec_dim_176,mat2vec_dim_177,mat2vec_dim_178,mat2vec_dim_179,mat2vec_dim_180,mat2vec_dim_181,mat2vec_dim_182,mat2vec_dim_183,mat2vec_dim_184,mat2vec_dim_185,mat2vec_dim_186,mat2vec_dim_187,mat2vec_dim_188,mat2vec_dim_189,mat2vec_dim_190,mat2vec_dim_191,mat2vec_dim_192,mat2vec_dim_193,mat2vec_dim_194,mat2vec_dim_195,mat2vec_dim_196,mat2vec_dim_197,mat2vec_dim_198,mat2vec_dim_199,mat2vec_dim_200
la,-0.42529523372650146,0.23702380061149597,-0.42812374234199524,0.9475445747375488,0.11815524101257324,0.8916345238685608,-0.18170583248138428,0.021690387278795242,0.4659087657928467,-0.040208831429481506,0.030884509906172752,-0.11172454804182053,0.16051101684570312,0.009824017062783241,0.06220981851220131,0.6310678124427795,-0.13678699731826782,-0.35276222229003906,-0.510080099105835,0.9532697796821594,-0.048234403133392334,-0.24781084060668945,-0.31298404932022095,0.8400158286094666,-0.1707874834537506,0.14905299246311188,-0.01562640257179737,-0.3209230899810791,0.29441672563552856,0.5472536087036133,-0.4644758999347687,-0.22489365935325623,-0.20790714025497437,0.27788475155830383,0.15417608618736267,-0.3784688413143158,-0.3802931010723114,-0.40910616517066956,-0.18341951072216034,-0.182596355676651,0.3786633014678955,-0.2991463840007782,-0.3155975341796875,-0.702131450176239,-0.31278687715530396,0.4464281499385834,0.22765885293483734,-0.25840675830841064,-0.03204675763845444,0.18828943371772766,0.33359354734420776,-0.003492504358291626,-0.33935046195983887,-0.2628662586212158,-0.061264146119356155,0.07358954101800919,0.19668926298618317,0.3748103082180023,-0.191240131855011,0.07026590406894684,0.08093249797821045,0.6998764276504517,0.6637934446334839,0.1552303582429886,-0.3547714054584503,0.4018736481666565,0.11278311163187027,-0.3028636574745178,-0.40492385625839233,0.28681743144989014,-0.4544222354888916,0.17923443019390106,-0.33943888545036316,0.1388774961233139,-0.7281715273857117,-0.22863467037677765,-0.11124911159276962,-0.009496504440903664,-0.2742007076740265,-0.0802459791302681,-0.018472881987690926,-0.05023239925503731,-0.3107839822769165,0.02532118931412697,0.27115392684936523,-0.8157727122306824,0.5524624586105347,-0.17969883978366852,0.49564504623413086,0.48870766162872314,0.7641471028327942,0.2561107575893402,-0.23205602169036865,-0.3897349238395691,0.15966635942459106,-0.3586239218711853,-0.6109625101089478,-0.5291016101837158,-0.12747469544410706,0.09992121160030365,0.4165095090866089,0.5939478874206543,-0.09685689955949783,-0.16027291119098663,-0.39852458238601685,0.041739773005247116,-0.3836855888366699,0.3176462650299072,0.27872446179389954,0.7484933137893677,-0.20766495168209076,-0.22459353506565094,-0.050004057586193085,-0.024813542142510414,-0.16088011860847473,-0.20434699952602386,0.33453115820884705,-0.023889189586043358,0.47960981726646423,0.4355737268924713,-0.10569123923778534,-0.1341964304447174,-0.7378532886505127,-0.4481874108314514,0.14647026360034943,0.6509458422660828,0.6579345464706421,0.1533673107624054,0.5240970849990845,0.06930229812860489,-0.204173281788826,0.041214048862457275,-0.678013801574707,0.038249436765909195,-0.10536514222621918,0.06734879314899445,0.6071550846099854,0.44883906841278076,-0.30121949315071106,0.19219639897346497,-0.09068804979324341,0.4354258179664612,-0.18709918856620789,0.2997927963733673,0.06737703830003738,0.6155031323432922,-0.23868419229984283,0.4279114305973053,0.4752099812030792,-0.424679160118103,0.24218899011611938,1.1521966457366943,0.2381439059972763,-0.006989290006458759,-0.27729612588882446,0.037687599658966064,-0.2095494568347931,0.004119359888136387,-0.1421416997909546,0.5892334580421448,0.039246831089258194,1.3086167573928833,0.14082346856594086,-0.6215868592262268,0.5645517706871033,0.5494928359985352,-0.29145798087120056,0.24293911457061768,-1.0914559364318848,-0.2771391272544861,0.30786001682281494,0.18384955823421478,0.2226845771074295,0.6395260691642761,0.4580278694629669,-0.647867739200592,0.5543743371963501,0.1346801072359085,-0.9483556151390076,0.017393313348293304,-0.29133766889572144,0.18236778676509857,-0.0654032751917839,-0.6268477439880371,0.45459091663360596,-0.5952778458595276,-0.208166241645813,-0.002102481434121728,-0.002855174243450165,0.71197509765625,-0.02093394100666046,-0.15494686365127563,0.23018494248390198,0.2637055516242981,-0.02714889869093895,0.05214109644293785,-0.4050763249397278,0.8398073315620422,0.5597702264785767,-0.2668321132659912
zr,0.002772378036752343,-0.1675994098186493,0.018304573372006416,0.05125690996646881,0.061647411435842514,0.2777583599090576,0.28812703490257263,-0.03707042708992958,0.09321027994155884,-0.04026562348008156,0.2604380249977112,-0.04693962261080742,-0.016254885122179985,-0.2963326871395111,-0.10341732949018478,0.25925129652023315,0.06516063958406448,-0.12082230299711227,-0.05321590602397919,0.16531889140605927,0.24508918821811676,-0.0868983343243599,-0.0428103469312191,0.20528356730937958,0.18565316498279572,0.2819792628288269,-0.16766498982906342,0.047695718705654144,0.19767716526985168,0.06703382730484009,-0.2530754506587982,0.26489976048469543,-0.10003240406513214,0.056949883699417114,-0.0776640921831131,0.06423694640398026,0.08082500845193863,-0.1554194688796997,-0.20310546457767487,0.07205559313297272,0.251226007938385,-0.025627173483371735,0.07588391751050949,0.019909564405679703,-0.04463828727602959,0.044156331568956375,0.1217847466468811,-0.15838101506233215,-0.12702733278274536,0.18635891377925873,0.04883336275815964,-0.07064376771450043,0.03605315834283829,0.13441739976406097,0.04991180822253227,0.16576822102069855,0.10102963447570801,0.040568847209215164,0.1738877147436142,0.12648577988147736,-0.14371851086616516,-0.017742110416293144,0.0024519283324480057,0.08176027983427048,-0.45349475741386414,0.10604514181613922,0.10103169828653336,0.13921310007572174,-0.07896986603736877,0.28272950649261475,0.46879541873931885,-0.247867152094841,-0.22694268822669983,0.05465223267674446,0.04011279344558716,-0.1784147024154663,-0.2772480845451355,-0.18443141877651215,-0.18665863573551178,-0.21701985597610474,0.19809004664421082,0.11275067180395126,-0.2749249339103699,-0.0036652374546974897,-0.05176340043544769,-0.25312289595603943,0.014329352416098118,0.05274851247668266,0.4663749933242798,-0.06500112265348434,0.04329932853579521,0.05816490575671196,0.12266944348812103,0.03892755135893822,-0.11336376518011093,0.005087347235530615,0.10430736839771271,0.20418472588062286,0.1282528191804886,0.2197697013616562,-0.5142102837562561,0.27859243750572205,-0.19902250170707703,-0.1372472196817398,-0.09638110548257828,0.14855284988880157,-0.23596376180648804,-0.13301365077495575,-0.20322632789611816,0.1590336561203003,-0.15577565133571625,0.24269959330558777,-0.4603407084941864,0.13245581090450287,0.06549683213233948,-0.01803380623459816,0.005224142223596573,-0.24600306153297424,0.2065306454896927,-0.09514901787042618,-0.037882186472415924,-0.10650000721216202,-0.12663815915584564,-0.41788798570632935,-0.06532727926969528,0.21239525079727173,0.10594826191663742,-0.47281351685523987,0.024501623585820198,0.033247701823711395,-0.18704423308372498,-0.01172278355807066,-0.035803571343421936,0.07985612004995346,0.23870119452476501,0.02014012821018696,-0.014671205542981625,0.138982355594635,0.10625050961971283,0.1919507086277008,-0.3449106216430664,0.06027945131063461,-0.12262950837612152,0.08309398591518402,-0.3046031594276428,0.07837284356355667,0.2907196879386902,0.10124630481004715,-0.0851350650191307,-0.03426649793982506,-0.03943828493356705,0.15399430692195892,0.3910452425479889,-0.02064022794365883,-0.36107245087623596,-0.4628390669822693,-0.1670919507741928,0.095986008644104,-0.12368349730968475,0.14362116158008575,-0.034697525203228,0.37283602356910706,0.11700470000505447,-0.26062533259391785,0.2956484258174896,0.27758291363716125,-0.2823992967605591,0.15176454186439514,-0.37132659554481506,-0.10140688717365265,0.11582224071025848,0.1552761197090149,-0.0439101941883564,-0.12956461310386658,0.2573373317718506,-0.11015123128890991,-0.16084854304790497,0.1794118881225586,-0.2111695557832718,-0.04774374142289162,-0.1503710001707077,0.04839792847633362,-0.19768869876861572,-0.2542729675769806,-0.34565791487693787,-0.16195286810398102,-0.047046709805727005,0.08271502703428268,-0.20821987092494965,-0.039006635546684265,0.2738005518913269,-0.12039826065301895,0.10494781285524368,0.22304220497608185,0.089442178606987,0.028801055625081062,-0.05565126612782478,0.16369083523750305,0.16572333872318268,0.2144189029932022
k,-0.2786632776260376,0.2972096800804138,0.2264341115951538,0.04587343707680702,-0.06470022350549698,0.11937054991722107,0.5614200234413147,0.32817718386650085,-0.010002579540014267,0.09578662365674973,-0.43793749809265137,-0.13842956721782684,-0.16270627081394196,-0.49315598607063293,-0.4008313715457916,-0.10630544275045395,0.11849719285964966,-0.0035243628080934286,-0.029456015676259995,0.40089547634124756,0.3627975881099701,-0.09381922334432602,-0.5111873745918274,0.31994596123695374,0.030259162187576294,0.4939724802970886,-0.7275550365447998,0.0022248472087085247,0.31509095430374146,-0.19995257258415222,-0.28212714195251465,-0.21348325908184052,-0.6149804592132568,-0.03362047299742699,-0.07630541175603867,-0.47838646173477173,-0.04237670451402664,0.16427385807037354,0.1738104671239853,0.2568678557872772,-0.0019871597178280354,-0.13466539978981018,0.17413713037967682,-0.38141068816185,-0.2234640121459961,0.24229532480239868,0.16041013598442078,0.06018175184726715,-0.16081511974334717,-0.4119584262371063,-0.11337698996067047,0.034149426966905594,0.2642855942249298,-0.2555587887763977,-0.4856151044368744,0.14079734683036804,0.18373775482177734,-0.17660735547542572,0.4604029655456543,-0.08074929565191269,-0.13814926147460938,-0.07942978292703629,0.07734541594982147,0.3831223249435425,0.3546139597892761,0.31764644384384155,-0.16825905442237854,-0.12738804519176483,-0.06017177924513817,0.46044155955314636,0.3895159959793091,-0.16385938227176666,-0.50108802318573,-0.14943161606788635,0.3166384696960449,-0.2058541178703308,-0.36412903666496277,-0.31893202662467957,0.07040081918239594,-0.08565989136695862,0.24762612581253052,-0.02641669660806656,-0.03201349452137947,-0.24852246046066284,-0.2960510849952698,-0.5021806955337524,0.26716235280036926,-0.05563732981681824,0.4740407466888428,0.26497209072113037,0.14664025604724884,-0.1591692417860031,0.34733226895332336,0.13164368271827698,-0.03858504071831703,-0.016509216278791428,-0.331179141998291,0.10452809184789658,-0.03528016060590744,0.07704517245292664,-0.06077789515256882,0.253650039434433,-0.05428118631243706,-0.7681993246078491,0.08736078441143036,-0.03617120534181595,-0.42324376106262207,-0.2397933006286621,-0.06366514414548874,-0.1429179161787033,-0.05311417952179909,0.3473913073539734,-0.057083290070295334,-0.02502816915512085,-0.20552009344100952,0.17655466496944427,0.2691911458969116,0.03568997234106064,-0.4931780695915222,0.2570026218891144,0.16450783610343933,-0.12259615957736969,-0.35440170764923096,-0.2595059871673584,0.10663076490163803,0.2579764127731323,0.055397722870111465,-0.527590274810791,0.04313909262418747,0.3024299740791321,-0.09545229375362396,0.05208154767751694,-0.24609538912773132,0.45593738555908203,-0.26498815417289734,0.08949995785951614,0.1955961287021637,0.09840821474790573,0.034711096435785294,-0.25433114171028137,-0.029297132045030594,-0.35867154598236084,0.12501470744609833,-0.0577133446931839,-0.03333217650651932,0.06916634738445282,0.3406950533390045,-0.09331308305263519,0.05186796933412552,-0.07421508431434631,0.2910497486591339,0.20211131870746613,0.3346419930458069,0.34297531843185425,-0.3675488531589508,-0.1368962675333023,-0.14183557033538818,0.08440887182950974,-0.06153232604265213,-0.33918413519859314,0.03367990627884865,-0.11429398506879807,-0.32953643798828125,-0.2834811210632324,0.38116952776908875,0.3819536864757538,-0.049045708030462265,0.10854150354862213,-0.7144330143928528,0.1016906127333641,-0.012014257721602917,0.10461984574794769,-0.5797964930534363,-0.39734598994255066,-0.4514903426170349,-0.48681560158729553,-0.15461234748363495,0.35195207595825195,0.014839034527540207,-0.39878737926483154,-0.41838014125823975,0.07427490502595901,-0.0844585970044136,-0.23341357707977295,-0.12947095930576324,-0.1480274498462677,0.014681583270430565,0.20563778281211853,-0.14346224069595337,0.2502480149269104,0.4254721999168396,-0.14881715178489685,0.4279683828353882,-0.14415860176086426,-0.23756606876850128,0.2781093120574951,0.14681962132453918,0.15814422070980072,0.42344364523887634,0.03026307374238968
mg,0.07883641868829727,0.09132847189903259,0.03252873197197914,0.36952853202819824,0.09154342859983444,-0.41863247752189636,0.3494717478752136,-0.2800344228744507,0.12469454854726791,0.2506018877029419,-0.20631735026836395,0.1422906219959259,-0.017080090939998627,-0.3717299997806549,-0.13300549983978271,0.26862651109695435,-0.2053641825914383,0.15310873091220856,0.4871819019317627,0.8233158588409424,0.4508008360862732,-0.04967908561229706,0.01790555939078331,0.00260179047472775,0.07887867093086243,0.04495750367641449,-0.06749902665615082,0.4424538314342499,-0.18084150552749634,-0.04510938748717308,0.06236798316240311,0.21951131522655487,-0.2954181432723999,-0.8604387044906616,0.03589119762182236,0.048234641551971436,0.04773007333278656,-0.3394070565700531,0.35269400477409363,-0.5327123999595642,0.345045804977417,0.11158853024244308,0.14045275747776031,0.27152299880981445,-0.1670013666152954,0.3999161422252655,0.05196124687790871,0.23726455867290497,-0.18841707706451416,0.004615935496985912,0.042267944663763046,0.11287771165370941,0.5935344099998474,-0.18709558248519897,0.2305188775062561,0.4364696145057678,0.31520575284957886,0.6155514121055603,0.19255606830120087,-0.2997927665710449,0.08788099139928818,0.18237489461898804,0.2308253049850464,0.3173602223396301,0.05111685022711754,0.3950790762901306,0.28712624311447144,-0.2685772776603699,-0.48549938201904297,0.1942366510629654,0.46393486857414246,0.02725856378674507,-0.5792259573936462,0.13659799098968506,-0.13345742225646973,-0.028824010863900185,-0.408359169960022,-0.4577082097530365,0.06917820125818253,-0.22868841886520386,-0.11265016347169876,0.2802262008190155,-0.2662769556045532,-0.17661400139331818,-0.2948453724384308,-0.6263828873634338,0.23551061749458313,0.0785222053527832,0.30567309260368347,0.18766102194786072,0.2978411912918091,0.011078637093305588,0.4569811522960663,-0.3333054184913635,-0.14524058997631073,-0.2142598181962967,-0.40211236476898193,0.03502904251217842,-0.19623000919818878,-0.11559852212667465,-0.053748928010463715,-0.0898500457406044,0.38056477904319763,-0.10810136795043945,0.14685963094234467,0.16439226269721985,-0.1832936406135559,0.3263441026210785,-0.3885466754436493,0.22354380786418915,0.04139496386051178,-0.3359977602958679,-0.18670356273651123,-0.3446628451347351,-0.03797262907028198,-0.358031302690506,0.7653964161872864,0.6659492254257202,0.5107988715171814,0.31751129031181335,0.21422848105430603,0.3161984384059906,-0.4873659312725067,0.055644504725933075,0.27211207151412964,0.12848468124866486,-0.13036809861660004,0.11301945149898529,-0.174884632229805,0.3296634256839752,-0.0613638199865818,-0.27743515372276306,-0.3385982811450958,-0.18140919506549835,-0.2225872129201889,0.06531808525323868,-0.18586251139640808,-0.273298442363739,0.09025727212429047,0.43072736263275146,-0.25720831751823425,-0.07547161728143692,-0.2248564064502716,0.41015419363975525,0.2602570056915283,0.22344443202018738,0.027472689747810364,-0.17831268906593323,-0.32941311597824097,-0.14834466576576233,0.19298306107521057,0.2964029014110565,0.24843059480190277,0.061941392719745636,-0.22775909304618835,0.28947678208351135,-0.5153678059577942,-0.032585259526968,0.20709769427776337,-0.00855585653334856,0.44535496830940247,0.5331608653068542,0.08314817398786545,0.20394714176654816,-0.17874547839164734,0.11024971306324005,0.2749703824520111,0.2904295325279236,-0.6545546650886536,0.22626136243343353,0.23160937428474426,-0.2678697407245636,-0.2635914385318756,-0.23071952164173126,-0.3468001186847687,-0.015227116644382477,0.2479877471923828,0.022598780691623688,-0.008223217912018299,-0.34851905703544617,-0.29296213388442993,-0.42373350262641907,0.33542293310165405,-0.7290213704109192,0.4047139883041382,-0.13212935626506805,0.34623903036117554,0.351870596408844,0.3906210958957672,0.45998337864875793,0.40113839507102966,-0.043547071516513824,0.158349871635437,0.34692779183387756,0.14069761335849762,-0.012872348539531231,0.6658979058265686,0.3614673912525177,-0.3508119583129883,0.4939374625682831
ca,-0.10863609611988068,0.25536659359931946,-0.13550320267677307,0.369942843914032,0.09179938584566116,0.035730838775634766,-0.05021538585424423,-0.1073601245880127,-0.11872953176498413,-0.39162617921829224,-0.06525388360023499,0.1458244025707245,0.13715310394763947,-0.11349032074213028,0.5075197219848633,0.6193943619728088,-0.02635711431503296,0.09140235185623169,0.0994073823094368,0.711855947971344,0.1217784732580185,-0.22498787939548492,0.1612696349620819,0.05822456628084183,0.013359304517507553,-0.3188891112804413,-0.15594245493412018,-0.1179065853357315,0.33775848150253296,-0.47218841314315796,-0.21071843802928925,0.27686572074890137,0.22347120940685272,-0.06516841053962708,0.36943531036376953,-0.21623298525810242,-0.16910088062286377,-0.29005157947540283,0.2971946895122528,0.41406601667404175,0.6323537230491638,-0.13343903422355652,0.10880491882562637,0.07066050916910172,-0.4366786777973175,0.3009929656982422,0.023297619074583054,0.05373259261250496,0.3084871470928192,0.3150189518928528,-0.27561894059181213,-0.09892994910478592,0.210393026471138,-0.02474173903465271,-0.5869629383087158,0.40699371695518494,0.0013926649698987603,-0.07687469571828842,0.30174458026885986,-0.2939211130142212,-0.31630948185920715,-0.1756191998720169,0.12735655903816223,0.31089314818382263,-0.10421347618103027,0.35595476627349854,0.0949099212884903,0.10216105729341507,-0.20415261387825012,0.05975111573934555,0.016307124868035316,0.3775384724140167,-0.31540191173553467,-0.0476035512983799,-0.32943370938301086,0.10536623001098633,0.06845799833536148,-0.3218967616558075,0.238467276096344,0.011841385625302792,-0.047613807022571564,0.31195059418678284,0.07452061027288437,0.13290630280971527,-0.09319843351840973,-0.3794032633304596,0.062165599316358566,0.30917853116989136,0.2577137053012848,-0.38790464401245117,0.5124868154525757,-0.2344381958246231,0.506644606590271,0.09086300432682037,-0.1711098700761795,-0.26252663135528564,0.27119219303131104,-0.3598146140575409,-0.10556237399578094,0.7103378772735596,-0.022744033485651016,-0.15421724319458008,0.35136643052101135,-0.024635719135403633,0.18204458057880402,0.11249522119760513,-0.08012817800045013,0.44634753465652466,0.275156706571579,-0.2661842405796051,-0.45573797821998596,-0.41875624656677246,-0.08658567070960999,0.3949708640575409,-0.437263160943985,0.46804192662239075,0.4468939006328583,0.22782474756240845,0.37967759370803833,-0.29538026452064514,-0.28352469205856323,-0.29769283533096313,-0.27876660227775574,0.161966934800148,-0.2276202142238617,-0.1520121693611145,-0.20783159136772156,-0.2470599114894867,-0.49422523379325867,0.34643787145614624,0.11267070472240448,0.05957074835896492,-0.011802895925939083,0.005957720335572958,-0.04258013516664505,-0.09824813902378082,-0.02020369842648506,0.3261863887310028,-0.020995380356907845,0.4219970703125,0.15532836318016052,0.11060604453086853,-0.15228435397148132,0.179952472448349,-0.44710880517959595,-0.23475755751132965,0.145589679479599,-0.2463826835155487,0.18893878161907196,-0.0628150999546051,0.5238204002380371,0.020965859293937683,-0.1496405303478241,0.1300952285528183,-0.18886248767375946,0.1237364336848259,-0.19806590676307678,0.028551381081342697,-0.10578733682632446,-0.3110889494419098,-0.21225690841674805,1.0149585008621216,0.3643590807914734,0.05716661736369133,0.07598274201154709,0.27347269654273987,0.02744813822209835,0.29060253500938416,-0.7925455570220947,0.08390826731920242,-0.0024433513171970844,0.6147589683532715,-0.06398070603609085,0.1885124295949936,0.20755431056022644,-0.11769027262926102,0.04746093228459358,0.15611405670642853,0.35947516560554504,0.2061886489391327,-0.13705474138259888,0.04595785215497017,-0.22601912915706635,-0.09518950432538986,-0.13121458888053894,0.002428451320156455,0.0004691849462687969,-0.06733596324920654,-0.34624576568603516,0.10731688141822815,0.899223268032074,-0.04346964880824089,-0.09694302827119827,0.048180654644966125,0.46330156922340393,-0.019248688593506813,0.37453028559684753,0.41424688696861267,0.18547417223453522,-0.04545262083411217
ba,0.009841560386121273,-0.029121028259396553,-0.9727562069892883,0.10974633693695068,-0.48655417561531067,0.05300626903772354,0.7566028237342834,0.32446834444999695,-0.44425269961357117,-0.0051267268136143684,-0.42878013849258423,-0.1456500142812729,-0.13149353861808777,-0.23939663171768188,0.270975798368454,0.251624196767807,-0.2899722158908844,-0.1992153823375702,-0.17088837921619415,-0.16661754250526428,0.5381167531013489,-0.399576336145401,0.09068339318037033,0.8107634782791138,-0.012419134378433228,0.18626168370246887,-0.4797908663749695,-0.11248235404491425,-0.35744020342826843,0.12051228433847427,0.16036508977413177,-0.13670118153095245,-0.5484516024589539,-0.7235291600227356,0.18175014853477478,-0.6358165740966797,-0.10077814757823944,0.32236990332603455,-0.11413653939962387,-0.27801835536956787,0.45783042907714844,-0.1925516426563263,-0.1918760985136032,0.24075117707252502,-0.2702651619911194,0.6781670451164246,0.34111273288726807,0.08168157190084457,0.06802887469530106,-0.5023517608642578,0.32681190967559814,0.0016115489415824413,-0.15894584357738495,-0.052008453756570816,-0.1455114781856537,0.5053021907806396,-0.216733917593956,-0.1429920196533203,0.28600820899009705,0.4058307409286499,0.04341939091682434,0.7391209602355957,0.8418639898300171,-0.004865437280386686,0.15358179807662964,-0.0828116312623024,-0.2950691878795624,0.3519507348537445,0.23602545261383057,0.6702997088432312,0.637071967124939,-0.009849635884165764,-0.4253622591495514,-0.3510167598724365,0.035241421312093735,-0.3253991901874542,0.13776612281799316,-0.936135470867157,0.3969781994819641,0.23795470595359802,0.49968424439430237,0.2820761501789093,-0.4004373550415039,-0.35044553875923157,-0.23178474605083466,-0.30074548721313477,0.6184833645820618,0.3293515145778656,0.4473952651023865,-0.4159708023071289,0.19515907764434814,-0.42253321409225464,-0.06661256402730942,-0.010312484577298164,-0.27251482009887695,0.1769016534090042,-0.3252702057361603,-0.018347781151533127,-0.549813985824585,-0.0917997881770134,-0.24876970052719116,0.167113795876503,-0.018599262461066246,-0.23794272541999817,-0.22339782118797302,0.19538213312625885,-0.3156434893608093,0.34056350588798523,0.6689167022705078,0.11079566925764084,-0.20079660415649414,0.458381325006485,0.22506827116012573,0.30308428406715393,0.45213931798934937,0.7418221235275269,-0.09102486819028854,-0.15193195641040802,0.4852695167064667,-0.2104635387659073,-0.36104610562324524,-0.34047093987464905,-0.41621118783950806,0.49118557572364807,0.21309472620487213,0.6630516052246094,0.2991620600223541,-0.41244152188301086,-1.0575124025344849,0.01143155712634325,-0.20751145482063293,-0.5697259902954102,0.36592957377433777,0.5313923954963684,-0.20626455545425415,-0.21306410431861877,0.1631448119878769,-0.45104172825813293,-0.13594192266464233,0.2026151716709137,0.05793437361717224,-0.05513940379023552,-0.5366693735122681,-0.28250575065612793,0.32619601488113403,-0.1458762139081955,0.37615880370140076,-0.3078959584236145,0.3769178092479706,-0.44148582220077515,-0.4174425005912781,0.2685795724391937,0.26582100987434387,0.3412173092365265,-0.7154740691184998,0.03055068477988243,-0.12131364643573761,0.2094220370054245,0.20368441939353943,0.1443289965391159,0.04305078089237213,0.2489832490682602,0.08171553909778595,-0.923873245716095,-0.11599021404981613,0.40471285581588745,-0.38312456011772156,-0.09661027044057846,-0.42362111806869507,0.09881740808486938,0.028306901454925537,-0.10110305994749069,0.0861077532172203,-0.052859384566545486,-0.7389177083969116,0.07643373310565948,0.04766853153705597,0.31919559836387634,-0.5121082067489624,-0.3557737469673157,0.3199210464954376,0.1678498536348343,-0.2207462042570114,0.1365031599998474,0.1185990571975708,0.12917521595954895,0.168657585978508,-0.3902285695075989,-0.1995123028755188,0.10741420090198517,0.2754353880882263,-0.18143761157989502,0.41365253925323486,-0.6480013728141785,-0.14449992775917053,-0.2689896821975708,0.3715733289718628,-0.3288233280181885,0.8728912472724915,-0.1549490988254547
ce,0.04374353215098381,-0.36846035718917847,-0.08329615741968155,0.5711410641670227,0.7271221876144409,0.7319348454475403,0.5924463868141174,0.23882147669792175,0.6224563121795654,0.3096243739128113,-0.14031854271888733,0.6766542792320251,0.37260183691978455,-0.9006910920143127,-0.1255175918340683,0.5426141023635864,-0.310997873544693,-0.0353994220495224,-0.01857522688806057,0.3442899286746979,0.1839897632598877,-0.26847246289253235,-0.43034133315086365,0.4620372951030731,-0.725881040096283,0.28499284386634827,0.2506090998649597,-0.4028216004371643,-0.052801623940467834,0.687439501285553,0.4323748052120209,-0.038015227764844894,-0.533649206161499,0.007143313065171242,-0.12639066576957703,-0.06705531477928162,-0.35549527406692505,-0.3507196009159088,-0.10526273399591446,0.17569947242736816,0.33662375807762146,-0.2079349011182785,-0.07486269623041153,0.1984410285949707,-0.36059194803237915,0.1529364287853241,-0.0795145034790039,-0.3482770323753357,-0.3091849684715271,-0.00485431170091033,-0.19287188351154327,0.4648823142051697,-0.22024454176425934,-0.8511124849319458,-0.21519750356674194,0.19003482162952423,0.66195148229599,-0.27942055463790894,0.3082057535648346,0.36557838320732117,0.20117734372615814,-0.15884405374526978,0.9548901319503784,-0.15465287864208221,-0.4972856938838959,0.08700817078351974,-0.1802079677581787,-0.46714964509010315,-0.5219438076019287,0.2511744797229767,-0.010641069151461124,0.2738341689109802,-0.7591744661331177,0.4120034873485565,-0.24683459103107452,0.5339327454566956,-0.19386687874794006,-0.23121921718120575,-0.22598326206207275,0.08164222538471222,0.20120994746685028,0.3200474977493286,-1.1347185373306274,-0.11987501382827759,0.0362759567797184,-0.19050338864326477,0.07440650463104248,0.08972246199846268,0.3227895200252533,0.0026101460680365562,0.6310062408447266,0.3069310784339905,-0.006824634037911892,-0.6539181470870972,0.2518916726112366,0.29705509543418884,0.20506137609481812,0.10436580330133438,-0.6845016479492188,-0.22996929287910461,0.2211964875459671,0.10270881652832031,0.04173349589109421,0.18801738321781158,-0.07332411408424377,-0.04301190748810768,-0.43961063027381897,-0.28317511081695557,0.16985464096069336,0.41388681530952454,-0.23388800024986267,0.030117809772491455,-0.8854195475578308,-0.22628170251846313,0.14729230105876923,-0.11223282665014267,-0.00776534341275692,0.1393185704946518,0.2953018546104431,0.3909844756126404,0.37084323167800903,0.4607210159301758,-0.7351723313331604,-0.5598999261856079,-0.015129202045500278,-0.05598169192671776,0.5324857234954834,0.1542053073644638,0.10583983361721039,-0.33563166856765747,-0.010575748048722744,-0.24648147821426392,0.3248916268348694,0.2998836040496826,0.14330601692199707,0.05472460016608238,0.25691062211990356,0.16352085769176483,0.3028514087200165,-0.04691197723150253,-0.1356523633003235,-0.6985577344894409,-0.21224276721477509,0.3613193929195404,-0.22620739042758942,0.18037885427474976,-0.7224406003952026,0.6814233064651489,0.7263849377632141,0.004114729352295399,0.2560153007507324,0.9517825841903687,0.7864079475402832,-0.0929565280675888,0.07702763378620148,0.19114479422569275,-0.10578545928001404,0.08774987608194351,0.058987054973840714,0.43199673295021057,0.14140358567237854,1.4430429935455322,-0.1631888747215271,-0.24224109947681427,0.9555908441543579,0.09995874762535095,-0.15054649114608765,0.31280481815338135,-0.5879376530647278,0.0852833241224289,0.24294418096542358,-0.09934443235397339,0.13146023452281952,0.2121502012014389,0.33099597692489624,-0.4569401741027832,0.44699448347091675,0.5058272480964661,-0.35267373919487,-0.321254163980484,-1.0188546180725098,0.12914471328258514,-0.04297354072332382,-0.5626741647720337,0.3266095221042633,-0.1500619351863861,0.3903016448020935,-0.5507149696350098,0.07363209128379822,0.1268538534641266,0.13670434057712555,-0.28154677152633667,0.3203894793987274,-0.030276400968432426,0.5766155123710632,0.21683602035045624,-0.6368516683578491,0.3201521039009094,0.8479676246643066,0.13658595085144043
pd,-0.4976502060890198,0.013533635064959526,-0.3398182690143585,-0.1099075898528099,-0.608629047870636,-0.028686176985502243,0.5972416996955872,0.18412236869335175,0.19398954510688782,-0.0322459377348423,-0.23717844486236572,-0.09021604061126709,-0.2145683318376541,-0.5760210752487183,0.15077020227909088,0.698756754398346,0.31992852687835693,0.29798388481140137,-0.09476655721664429,0.4154275953769684,0.7803350687026978,-0.3908407390117645,-0.039994221180677414,0.7386093139648438,0.05953562632203102,-0.31241074204444885,-0.43303990364074707,-0.31102174520492554,-0.27637961506843567,0.9010227918624878,-0.44152382016181946,-0.0792977437376976,-0.271560937166214,-0.7162067890167236,0.21262849867343903,-0.16396427154541016,-0.55405193567276,0.21361497044563293,0.5817221403121948,0.2909863293170929,0.2674684524536133,0.28552207350730896,0.23233315348625183,0.43117669224739075,-0.44842034578323364,-0.07063471525907516,0.7088996171951294,-0.9399720430374146,-0.08218038082122803,0.2067486196756363,-0.3896434009075165,0.2752682864665985,0.030122974887490273,-0.082676962018013,-0.8511251211166382,-0.1160224974155426,-0.27015241980552673,-0.02756277658045292,0.1722746640443802,0.1252390593290329,-0.6773872375488281,-0.09134326875209808,0.6456624865531921,0.0724870041012764,-0.21093472838401794,-0.07340023666620255,-0.08925879746675491,-0.05849795043468475,0.6731747984886169,0.4026474952697754,-0.08117087930440903,-0.12101825326681137,-0.3094753324985504,-0.1408647894859314,-0.07623254507780075,-0.1970822513103485,-0.21639926731586456,-0.6786314249038696,0.37372487783432007,0.3208726942539215,0.3504699170589447,0.32520830631256104,-0.44050297141075134,0.16615833342075348,-0.30526384711265564,-0.3297446072101593,0.4133572578430176,0.49995583295822144,0.06662764400243759,0.267388254404068,0.42364510893821716,-0.09115179628133774,0.7821621298789978,0.2246459275484085,-0.8316289782524109,0.2375267893075943,0.2529553472995758,-0.0637584999203682,0.1897697150707245,-0.05678540840744972,-0.1305646002292633,0.024156369268894196,0.14567416906356812,0.04648052901029587,-0.5127529501914978,0.5089259743690491,-0.10921590775251389,0.051845695823431015,0.16364888846874237,-0.0365610234439373,-0.796980619430542,0.5162572860717773,-0.041090384125709534,-0.5979456901550293,-0.06833412498235703,-0.02719702757894993,0.15336942672729492,0.09334515035152435,-0.13357536494731903,-0.2477831393480301,0.2574298679828644,0.012232030741870403,-0.025123242288827896,0.21218009293079376,0.167129784822464,0.18443992733955383,0.53694748878479,-0.6955689787864685,-0.26156413555145264,0.47139331698417664,-0.19447842240333557,-0.1952548325061798,0.05440165475010872,-0.03374146297574043,0.4762258529663086,0.46042078733444214,-0.16427601873874664,0.2106977254152298,0.18911737203598022,0.2829655408859253,-0.01884789764881134,-0.6228533983230591,-0.6134011745452881,-0.24085284769535065,-0.08183205127716064,0.19187748432159424,0.1400335133075714,-0.17378172278404236,0.6295995116233826,0.7554681897163391,0.6947864890098572,0.13610641658306122,0.19544246792793274,0.17099401354789734,-0.03923118859529495,-0.1825416088104248,-0.13374894857406616,0.3469546139240265,0.5421606302261353,0.3291034698486328,-0.07927440851926804,0.8116129040718079,-0.29079586267471313,0.06935781240463257,0.10989933460950851,-0.20000652968883514,-0.6277692317962646,-0.32064762711524963,-0.21981334686279297,-0.2691574692726135,0.29583248496055603,-0.2812747061252594,-0.22270254790782928,-0.5986946821212769,-0.3881729245185852,-0.5074113607406616,-0.46064257621765137,0.1752767115831375,0.2637467682361603,-0.2895119786262512,-0.5371503829956055,-0.2669042646884918,-0.2107139527797699,-0.04888664558529854,-0.15370142459869385,-0.3346347510814667,0.3454822897911072,-0.23061855137348175,0.6485975980758667,0.19495068490505219,0.4016006886959076,-0.6604344248771667,0.12354075908660889,0.2214728593826294,-0.15913771092891693,-0.03334039822220802,-0.5055080652236938,-0.7048530578613281,0.10106074064970016,0.3511456549167633
